digraph Tree {
node [shape=box, fontname="helvetica"] ;
edge [fontname="helvetica"] ;
0 [label="female <= 0.5\ngini = 0.437\nsamples = 984\nvalue = [666, 318]"] ;
1 [label="age <= 12.0\ngini = 0.281\nsamples = 663\nvalue = [551, 112]"] ;
0 -> 1 [labeldistance=2.5, labelangle=45, headlabel="True"] ;
2 [label="gini = 0.413\nsamples = 24\nvalue = [7, 17]"] ;
1 -> 2 ;
3 [label="gini = 0.253\nsamples = 639\nvalue = [544, 95]"] ;
1 -> 3 ;
4 [label="pclass=3rd <= 0.5\ngini = 0.46\nsamples = 321\nvalue = [115, 206]"] ;
0 -> 4 [labeldistance=2.5, labelangle=-45, headlabel="False"] ;
5 [label="gini = 0.189\nsamples = 161\nvalue = [17, 144]"] ;
4 -> 5 ;
6 [label="gini = 0.475\nsamples = 160\nvalue = [98, 62]"] ;
4 -> 6 ;
}