digraph Tree {
node [shape=box, fontname="helvetica"] ;
edge [fontname="helvetica"] ;
0 [label="female <= 0.5\ngini = 0.448\nsamples = 984\nvalue = [650, 334]"] ;
1 [label="pclass=1st <= 0.5\ngini = 0.271\nsamples = 643\nvalue = [539, 104]"] ;
0 -> 1 [labeldistance=2.5, labelangle=45, headlabel="True"] ;
2 [label="age <= 3.5\ngini = 0.199\nsamples = 508\nvalue = [451, 57]"] ;
1 -> 2 ;
3 [label="age <= 0.667\ngini = 0.219\nsamples = 8\nvalue = [1, 7]"] ;
2 -> 3 ;
4 [label="gini = 0.0\nsamples = 1\nvalue = [1, 0]"] ;
3 -> 4 ;
5 [label="gini = 0.0\nsamples = 7\nvalue = [0, 7]"] ;
3 -> 5 ;
6 [label="age <= 10.0\ngini = 0.18\nsamples = 500\nvalue = [450, 50]"] ;
2 -> 6 ;
7 [label="pclass=2nd <= 0.5\ngini = 0.469\nsamples = 8\nvalue = [5, 3]"] ;
6 -> 7 ;
8 [label="age <= 7.5\ngini = 0.278\nsamples = 6\nvalue = [5, 1]"] ;
7 -> 8 ;
9 [label="gini = 0.0\nsamples = 3\nvalue = [3, 0]"] ;
8 -> 9 ;
10 [label="gini = 0.444\nsamples = 3\nvalue = [2, 1]"] ;
8 -> 10 ;
11 [label="gini = 0.0\nsamples = 2\nvalue = [0, 2]"] ;
7 -> 11 ;
12 [label="age <= 18.5\ngini = 0.173\nsamples = 492\nvalue = [445, 47]"] ;
6 -> 12 ;
13 [label="gini = 0.0\nsamples = 18\nvalue = [18, 0]"] ;
12 -> 13 ;
14 [label="age <= 45.5\ngini = 0.179\nsamples = 474\nvalue = [427, 47]"] ;
12 -> 14 ;
15 [label="age <= 20.5\ngini = 0.183\nsamples = 462\nvalue = [415, 47]"] ;
14 -> 15 ;
16 [label="age <= 19.5\ngini = 0.291\nsamples = 17\nvalue = [14, 3]"] ;
15 -> 16 ;
17 [label="pclass=2nd <= 0.5\ngini = 0.219\nsamples = 8\nvalue = [7, 1]"] ;
16 -> 17 ;
18 [label="gini = 0.278\nsamples = 6\nvalue = [5, 1]"] ;
17 -> 18 ;
19 [label="gini = 0.0\nsamples = 2\nvalue = [2, 0]"] ;
17 -> 19 ;
20 [label="pclass=2nd <= 0.5\ngini = 0.346\nsamples = 9\nvalue = [7, 2]"] ;
16 -> 20 ;
21 [label="gini = 0.278\nsamples = 6\nvalue = [5, 1]"] ;
20 -> 21 ;
22 [label="gini = 0.444\nsamples = 3\nvalue = [2, 1]"] ;
20 -> 22 ;
23 [label="age <= 31.097\ngini = 0.178\nsamples = 445\nvalue = [401, 44]"] ;
15 -> 23 ;
24 [label="age <= 26.5\ngini = 0.124\nsamples = 90\nvalue = [84, 6]"] ;
23 -> 24 ;
25 [label="age <= 22.5\ngini = 0.18\nsamples = 60\nvalue = [54, 6]"] ;
24 -> 25 ;
26 [label="pclass=2nd <= 0.5\ngini = 0.1\nsamples = 19\nvalue = [18, 1]"] ;
25 -> 26 ;
27 [label="age <= 21.5\ngini = 0.165\nsamples = 11\nvalue = [10, 1]"] ;
26 -> 27 ;
28 [label="gini = 0.278\nsamples = 6\nvalue = [5, 1]"] ;
27 -> 28 ;
29 [label="gini = 0.0\nsamples = 5\nvalue = [5, 0]"] ;
27 -> 29 ;
30 [label="gini = 0.0\nsamples = 8\nvalue = [8, 0]"] ;
26 -> 30 ;
31 [label="age <= 24.5\ngini = 0.214\nsamples = 41\nvalue = [36, 5]"] ;
25 -> 31 ;
32 [label="age <= 23.5\ngini = 0.266\nsamples = 19\nvalue = [16, 3]"] ;
31 -> 32 ;
33 [label="pclass=2nd <= 0.5\ngini = 0.198\nsamples = 9\nvalue = [8, 1]"] ;
32 -> 33 ;
34 [label="gini = 0.32\nsamples = 5\nvalue = [4, 1]"] ;
33 -> 34 ;
35 [label="gini = 0.0\nsamples = 4\nvalue = [4, 0]"] ;
33 -> 35 ;
36 [label="pclass=3rd <= 0.5\ngini = 0.32\nsamples = 10\nvalue = [8, 2]"] ;
32 -> 36 ;
37 [label="gini = 0.444\nsamples = 3\nvalue = [2, 1]"] ;
36 -> 37 ;
38 [label="gini = 0.245\nsamples = 7\nvalue = [6, 1]"] ;
36 -> 38 ;
39 [label="pclass=2nd <= 0.5\ngini = 0.165\nsamples = 22\nvalue = [20, 2]"] ;
31 -> 39 ;
40 [label="age <= 25.5\ngini = 0.153\nsamples = 12\nvalue = [11, 1]"] ;
39 -> 40 ;
41 [label="gini = 0.278\nsamples = 6\nvalue = [5, 1]"] ;
40 -> 41 ;
42 [label="gini = 0.0\nsamples = 6\nvalue = [6, 0]"] ;
40 -> 42 ;
43 [label="age <= 25.5\ngini = 0.18\nsamples = 10\nvalue = [9, 1]"] ;
39 -> 43 ;
44 [label="gini = 0.0\nsamples = 5\nvalue = [5, 0]"] ;
43 -> 44 ;
45 [label="gini = 0.32\nsamples = 5\nvalue = [4, 1]"] ;
43 -> 45 ;
46 [label="gini = 0.0\nsamples = 30\nvalue = [30, 0]"] ;
24 -> 46 ;
47 [label="age <= 44.5\ngini = 0.191\nsamples = 355\nvalue = [317, 38]"] ;
23 -> 47 ;
48 [label="age <= 41.5\ngini = 0.189\nsamples = 350\nvalue = [313, 37]"] ;
47 -> 48 ;
49 [label="age <= 40.5\ngini = 0.192\nsamples = 344\nvalue = [307, 37]"] ;
48 -> 49 ;
50 [label="age <= 36.5\ngini = 0.189\nsamples = 341\nvalue = [305, 36]"] ;
49 -> 50 ;
51 [label="age <= 35.5\ngini = 0.194\nsamples = 331\nvalue = [295, 36]"] ;
50 -> 51 ;
52 [label="age <= 34.5\ngini = 0.191\nsamples = 328\nvalue = [293, 35]"] ;
51 -> 52 ;
53 [label="age <= 31.597\ngini = 0.193\nsamples = 323\nvalue = [288, 35]"] ;
52 -> 53 ;
54 [label="pclass=2nd <= 0.5\ngini = 0.187\nsamples = 306\nvalue = [274, 32]"] ;
53 -> 54 ;
55 [label="gini = 0.191\nsamples = 271\nvalue = [242, 29]"] ;
54 -> 55 ;
56 [label="gini = 0.157\nsamples = 35\nvalue = [32, 3]"] ;
54 -> 56 ;
57 [label="age <= 32.5\ngini = 0.291\nsamples = 17\nvalue = [14, 3]"] ;
53 -> 57 ;
58 [label="pclass=3rd <= 0.5\ngini = 0.375\nsamples = 8\nvalue = [6, 2]"] ;
57 -> 58 ;
59 [label="gini = 0.375\nsamples = 4\nvalue = [3, 1]"] ;
58 -> 59 ;
60 [label="gini = 0.375\nsamples = 4\nvalue = [3, 1]"] ;
58 -> 60 ;
61 [label="pclass=2nd <= 0.5\ngini = 0.198\nsamples = 9\nvalue = [8, 1]"] ;
57 -> 61 ;
62 [label="gini = 0.0\nsamples = 3\nvalue = [3, 0]"] ;
61 -> 62 ;
63 [label="age <= 33.5\ngini = 0.278\nsamples = 6\nvalue = [5, 1]"] ;
61 -> 63 ;
64 [label="gini = 0.0\nsamples = 1\nvalue = [1, 0]"] ;
63 -> 64 ;
65 [label="gini = 0.32\nsamples = 5\nvalue = [4, 1]"] ;
63 -> 65 ;
66 [label="gini = 0.0\nsamples = 5\nvalue = [5, 0]"] ;
52 -> 66 ;
67 [label="pclass=2nd <= 0.5\ngini = 0.444\nsamples = 3\nvalue = [2, 1]"] ;
51 -> 67 ;
68 [label="gini = 0.0\nsamples = 1\nvalue = [0, 1]"] ;
67 -> 68 ;
69 [label="gini = 0.0\nsamples = 2\nvalue = [2, 0]"] ;
67 -> 69 ;
70 [label="gini = 0.0\nsamples = 10\nvalue = [10, 0]"] ;
50 -> 70 ;
71 [label="pclass=2nd <= 0.5\ngini = 0.444\nsamples = 3\nvalue = [2, 1]"] ;
49 -> 71 ;
72 [label="gini = 0.0\nsamples = 1\nvalue = [1, 0]"] ;
71 -> 72 ;
73 [label="gini = 0.5\nsamples = 2\nvalue = [1, 1]"] ;
71 -> 73 ;
74 [label="gini = 0.0\nsamples = 6\nvalue = [6, 0]"] ;
48 -> 74 ;
75 [label="pclass=3rd <= 0.5\ngini = 0.32\nsamples = 5\nvalue = [4, 1]"] ;
47 -> 75 ;
76 [label="gini = 0.0\nsamples = 3\nvalue = [3, 0]"] ;
75 -> 76 ;
77 [label="gini = 0.5\nsamples = 2\nvalue = [1, 1]"] ;
75 -> 77 ;
78 [label="gini = 0.0\nsamples = 12\nvalue = [12, 0]"] ;
14 -> 78 ;
79 [label="age <= 53.0\ngini = 0.454\nsamples = 135\nvalue = [88, 47]"] ;
1 -> 79 ;
80 [label="age <= 17.5\ngini = 0.483\nsamples = 115\nvalue = [68, 47]"] ;
79 -> 80 ;
81 [label="gini = 0.0\nsamples = 6\nvalue = [0, 6]"] ;
80 -> 81 ;
82 [label="age <= 47.5\ngini = 0.469\nsamples = 109\nvalue = [68, 41]"] ;
80 -> 82 ;
83 [label="age <= 45.5\ngini = 0.451\nsamples = 99\nvalue = [65, 34]"] ;
82 -> 83 ;
84 [label="age <= 20.0\ngini = 0.466\nsamples = 92\nvalue = [58, 34]"] ;
83 -> 84 ;
85 [label="gini = 0.0\nsamples = 2\nvalue = [2, 0]"] ;
84 -> 85 ;
86 [label="age <= 29.0\ngini = 0.47\nsamples = 90\nvalue = [56, 34]"] ;
84 -> 86 ;
87 [label="age <= 24.5\ngini = 0.5\nsamples = 16\nvalue = [8, 8]"] ;
86 -> 87 ;
88 [label="age <= 23.5\ngini = 0.444\nsamples = 6\nvalue = [4, 2]"] ;
87 -> 88 ;
89 [label="age <= 22.5\ngini = 0.5\nsamples = 4\nvalue = [2, 2]"] ;
88 -> 89 ;
90 [label="age <= 21.5\ngini = 0.444\nsamples = 3\nvalue = [2, 1]"] ;
89 -> 90 ;
91 [label="gini = 0.5\nsamples = 2\nvalue = [1, 1]"] ;
90 -> 91 ;
92 [label="gini = 0.0\nsamples = 1\nvalue = [1, 0]"] ;
90 -> 92 ;
93 [label="gini = 0.0\nsamples = 1\nvalue = [0, 1]"] ;
89 -> 93 ;
94 [label="gini = 0.0\nsamples = 2\nvalue = [2, 0]"] ;
88 -> 94 ;
95 [label="age <= 27.5\ngini = 0.48\nsamples = 10\nvalue = [4, 6]"] ;
87 -> 95 ;
96 [label="age <= 25.5\ngini = 0.444\nsamples = 6\nvalue = [2, 4]"] ;
95 -> 96 ;
97 [label="gini = 0.5\nsamples = 2\nvalue = [1, 1]"] ;
96 -> 97 ;
98 [label="age <= 26.5\ngini = 0.375\nsamples = 4\nvalue = [1, 3]"] ;
96 -> 98 ;
99 [label="gini = 0.0\nsamples = 1\nvalue = [0, 1]"] ;
98 -> 99 ;
100 [label="gini = 0.444\nsamples = 3\nvalue = [1, 2]"] ;
98 -> 100 ;
101 [label="gini = 0.5\nsamples = 4\nvalue = [2, 2]"] ;
95 -> 101 ;
102 [label="age <= 30.5\ngini = 0.456\nsamples = 74\nvalue = [48, 26]"] ;
86 -> 102 ;
103 [label="gini = 0.0\nsamples = 3\nvalue = [3, 0]"] ;
102 -> 103 ;
104 [label="age <= 31.097\ngini = 0.464\nsamples = 71\nvalue = [45, 26]"] ;
102 -> 104 ;
105 [label="gini = 0.444\nsamples = 3\nvalue = [1, 2]"] ;
104 -> 105 ;
106 [label="age <= 31.597\ngini = 0.457\nsamples = 68\nvalue = [44, 24]"] ;
104 -> 106 ;
107 [label="gini = 0.422\nsamples = 43\nvalue = [30, 13]"] ;
106 -> 107 ;
108 [label="age <= 35.5\ngini = 0.493\nsamples = 25\nvalue = [14.0, 11.0]"] ;
106 -> 108 ;
109 [label="age <= 33.5\ngini = 0.375\nsamples = 4\nvalue = [1, 3]"] ;
108 -> 109 ;
110 [label="age <= 32.5\ngini = 0.5\nsamples = 2\nvalue = [1, 1]"] ;
109 -> 110 ;
111 [label="gini = 0.0\nsamples = 1\nvalue = [0, 1]"] ;
110 -> 111 ;
112 [label="gini = 0.0\nsamples = 1\nvalue = [1, 0]"] ;
110 -> 112 ;
113 [label="gini = 0.0\nsamples = 2\nvalue = [0, 2]"] ;
109 -> 113 ;
114 [label="age <= 39.5\ngini = 0.472\nsamples = 21\nvalue = [13, 8]"] ;
108 -> 114 ;
115 [label="age <= 36.5\ngini = 0.496\nsamples = 11\nvalue = [6, 5]"] ;
114 -> 115 ;
116 [label="gini = 0.5\nsamples = 4\nvalue = [2, 2]"] ;
115 -> 116 ;
117 [label="age <= 37.5\ngini = 0.49\nsamples = 7\nvalue = [4, 3]"] ;
115 -> 117 ;
118 [label="gini = 0.444\nsamples = 3\nvalue = [2, 1]"] ;
117 -> 118 ;
119 [label="age <= 38.5\ngini = 0.5\nsamples = 4\nvalue = [2, 2]"] ;
117 -> 119 ;
120 [label="gini = 0.5\nsamples = 2\nvalue = [1, 1]"] ;
119 -> 120 ;
121 [label="gini = 0.5\nsamples = 2\nvalue = [1, 1]"] ;
119 -> 121 ;
122 [label="age <= 41.5\ngini = 0.42\nsamples = 10\nvalue = [7, 3]"] ;
114 -> 122 ;
123 [label="gini = 0.0\nsamples = 2\nvalue = [2, 0]"] ;
122 -> 123 ;
124 [label="age <= 44.5\ngini = 0.469\nsamples = 8\nvalue = [5, 3]"] ;
122 -> 124 ;
125 [label="age <= 43.0\ngini = 0.5\nsamples = 4\nvalue = [2, 2]"] ;
124 -> 125 ;
126 [label="gini = 0.5\nsamples = 2\nvalue = [1, 1]"] ;
125 -> 126 ;
127 [label="gini = 0.5\nsamples = 2\nvalue = [1, 1]"] ;
125 -> 127 ;
128 [label="gini = 0.375\nsamples = 4\nvalue = [3, 1]"] ;
124 -> 128 ;
129 [label="gini = 0.0\nsamples = 7\nvalue = [7, 0]"] ;
83 -> 129 ;
130 [label="age <= 48.5\ngini = 0.42\nsamples = 10\nvalue = [3, 7]"] ;
82 -> 130 ;
131 [label="gini = 0.0\nsamples = 2\nvalue = [0, 2]"] ;
130 -> 131 ;
132 [label="age <= 51.0\ngini = 0.469\nsamples = 8\nvalue = [3, 5]"] ;
130 -> 132 ;
133 [label="age <= 49.5\ngini = 0.49\nsamples = 7\nvalue = [3, 4]"] ;
132 -> 133 ;
134 [label="gini = 0.444\nsamples = 6\nvalue = [2, 4]"] ;
133 -> 134 ;
135 [label="gini = 0.0\nsamples = 1\nvalue = [1, 0]"] ;
133 -> 135 ;
136 [label="gini = 0.0\nsamples = 1\nvalue = [0, 1]"] ;
132 -> 136 ;
137 [label="gini = 0.0\nsamples = 20\nvalue = [20, 0]"] ;
79 -> 137 ;
138 [label="pclass=3rd <= 0.5\ngini = 0.439\nsamples = 341\nvalue = [111.0, 230.0]"] ;
0 -> 138 [labeldistance=2.5, labelangle=-45, headlabel="False"] ;
139 [label="age <= 3.0\ngini = 0.153\nsamples = 180\nvalue = [15, 165]"] ;
138 -> 139 ;
140 [label="pclass=1st <= 0.5\ngini = 0.444\nsamples = 3\nvalue = [1, 2]"] ;
139 -> 140 ;
141 [label="gini = 0.0\nsamples = 2\nvalue = [0, 2]"] ;
140 -> 141 ;
142 [label="gini = 0.0\nsamples = 1\nvalue = [1, 0]"] ;
140 -> 142 ;
143 [label="pclass=1st <= 0.5\ngini = 0.146\nsamples = 177\nvalue = [14.0, 163.0]"] ;
139 -> 143 ;
144 [label="age <= 55.0\ngini = 0.188\nsamples = 76\nvalue = [8, 68]"] ;
143 -> 144 ;
145 [label="age <= 31.597\ngini = 0.169\nsamples = 75\nvalue = [7, 68]"] ;
144 -> 145 ;
146 [label="age <= 29.5\ngini = 0.219\nsamples = 48\nvalue = [6, 42]"] ;
145 -> 146 ;
147 [label="age <= 22.5\ngini = 0.137\nsamples = 27\nvalue = [2, 25]"] ;
146 -> 147 ;
148 [label="age <= 21.0\ngini = 0.208\nsamples = 17\nvalue = [2, 15]"] ;
147 -> 148 ;
149 [label="age <= 16.5\ngini = 0.133\nsamples = 14\nvalue = [1, 13]"] ;
148 -> 149 ;
150 [label="gini = 0.0\nsamples = 7\nvalue = [0, 7]"] ;
149 -> 150 ;
151 [label="age <= 18.5\ngini = 0.245\nsamples = 7\nvalue = [1, 6]"] ;
149 -> 151 ;
152 [label="gini = 0.444\nsamples = 3\nvalue = [1, 2]"] ;
151 -> 152 ;
153 [label="gini = 0.0\nsamples = 4\nvalue = [0, 4]"] ;
151 -> 153 ;
154 [label="gini = 0.444\nsamples = 3\nvalue = [1, 2]"] ;
148 -> 154 ;
155 [label="gini = 0.0\nsamples = 10\nvalue = [0, 10]"] ;
147 -> 155 ;
156 [label="age <= 30.5\ngini = 0.308\nsamples = 21\nvalue = [4, 17]"] ;
146 -> 156 ;
157 [label="gini = 0.375\nsamples = 4\nvalue = [1, 3]"] ;
156 -> 157 ;
158 [label="age <= 31.097\ngini = 0.291\nsamples = 17\nvalue = [3, 14]"] ;
156 -> 158 ;
159 [label="gini = 0.0\nsamples = 1\nvalue = [0, 1]"] ;
158 -> 159 ;
160 [label="gini = 0.305\nsamples = 16\nvalue = [3, 13]"] ;
158 -> 160 ;
161 [label="age <= 43.0\ngini = 0.071\nsamples = 27\nvalue = [1, 26]"] ;
145 -> 161 ;
162 [label="gini = 0.0\nsamples = 18\nvalue = [0, 18]"] ;
161 -> 162 ;
163 [label="age <= 44.5\ngini = 0.198\nsamples = 9\nvalue = [1, 8]"] ;
161 -> 163 ;
164 [label="gini = 0.0\nsamples = 1\nvalue = [1, 0]"] ;
163 -> 164 ;
165 [label="gini = 0.0\nsamples = 8\nvalue = [0, 8]"] ;
163 -> 165 ;
166 [label="gini = 0.0\nsamples = 1\nvalue = [1, 0]"] ;
144 -> 166 ;
167 [label="age <= 24.5\ngini = 0.112\nsamples = 101\nvalue = [6, 95]"] ;
143 -> 167 ;
168 [label="gini = 0.0\nsamples = 17\nvalue = [0, 17]"] ;
167 -> 168 ;
169 [label="age <= 25.5\ngini = 0.133\nsamples = 84\nvalue = [6, 78]"] ;
167 -> 169 ;
170 [label="gini = 0.0\nsamples = 1\nvalue = [1, 0]"] ;
169 -> 170 ;
171 [label="age <= 36.5\ngini = 0.113\nsamples = 83\nvalue = [5, 78]"] ;
169 -> 171 ;
172 [label="age <= 35.5\ngini = 0.159\nsamples = 46\nvalue = [4, 42]"] ;
171 -> 172 ;
173 [label="age <= 31.097\ngini = 0.133\nsamples = 42\nvalue = [3, 39]"] ;
172 -> 173 ;
174 [label="gini = 0.0\nsamples = 8\nvalue = [0, 8]"] ;
173 -> 174 ;
175 [label="age <= 32.097\ngini = 0.161\nsamples = 34\nvalue = [3, 31]"] ;
173 -> 175 ;
176 [label="gini = 0.175\nsamples = 31\nvalue = [3, 28]"] ;
175 -> 176 ;
177 [label="gini = 0.0\nsamples = 3\nvalue = [0, 3]"] ;
175 -> 177 ;
178 [label="gini = 0.375\nsamples = 4\nvalue = [1, 3]"] ;
172 -> 178 ;
179 [label="age <= 49.5\ngini = 0.053\nsamples = 37\nvalue = [1, 36]"] ;
171 -> 179 ;
180 [label="gini = 0.0\nsamples = 20\nvalue = [0, 20]"] ;
179 -> 180 ;
181 [label="age <= 50.5\ngini = 0.111\nsamples = 17\nvalue = [1, 16]"] ;
179 -> 181 ;
182 [label="gini = 0.0\nsamples = 1\nvalue = [1, 0]"] ;
181 -> 182 ;
183 [label="gini = 0.0\nsamples = 16\nvalue = [0, 16]"] ;
181 -> 183 ;
184 [label="age <= 25.5\ngini = 0.481\nsamples = 161\nvalue = [96, 65]"] ;
138 -> 184 ;
185 [label="age <= 13.0\ngini = 0.491\nsamples = 30\nvalue = [13, 17]"] ;
184 -> 185 ;
186 [label="age <= 5.5\ngini = 0.48\nsamples = 10\nvalue = [6, 4]"] ;
185 -> 186 ;
187 [label="age <= 2.5\ngini = 0.32\nsamples = 5\nvalue = [1, 4]"] ;
186 -> 187 ;
188 [label="age <= 1.083\ngini = 0.5\nsamples = 2\nvalue = [1, 1]"] ;
187 -> 188 ;
189 [label="gini = 0.0\nsamples = 1\nvalue = [0, 1]"] ;
188 -> 189 ;
190 [label="gini = 0.0\nsamples = 1\nvalue = [1, 0]"] ;
188 -> 190 ;
191 [label="gini = 0.0\nsamples = 3\nvalue = [0, 3]"] ;
187 -> 191 ;
192 [label="gini = 0.0\nsamples = 5\nvalue = [5, 0]"] ;
186 -> 192 ;
193 [label="age <= 19.0\ngini = 0.455\nsamples = 20\nvalue = [7, 13]"] ;
185 -> 193 ;
194 [label="age <= 15.5\ngini = 0.375\nsamples = 12\nvalue = [3, 9]"] ;
193 -> 194 ;
195 [label="gini = 0.0\nsamples = 1\nvalue = [0, 1]"] ;
194 -> 195 ;
196 [label="age <= 16.5\ngini = 0.397\nsamples = 11\nvalue = [3, 8]"] ;
194 -> 196 ;
197 [label="gini = 0.375\nsamples = 4\nvalue = [1, 3]"] ;
196 -> 197 ;
198 [label="age <= 17.5\ngini = 0.408\nsamples = 7\nvalue = [2, 5]"] ;
196 -> 198 ;
199 [label="gini = 0.444\nsamples = 3\nvalue = [1, 2]"] ;
198 -> 199 ;
200 [label="gini = 0.375\nsamples = 4\nvalue = [1, 3]"] ;
198 -> 200 ;
201 [label="age <= 21.5\ngini = 0.5\nsamples = 8\nvalue = [4, 4]"] ;
193 -> 201 ;
202 [label="gini = 0.0\nsamples = 2\nvalue = [2, 0]"] ;
201 -> 202 ;
203 [label="age <= 23.5\ngini = 0.444\nsamples = 6\nvalue = [2, 4]"] ;
201 -> 203 ;
204 [label="age <= 22.5\ngini = 0.375\nsamples = 4\nvalue = [1, 3]"] ;
203 -> 204 ;
205 [label="gini = 0.444\nsamples = 3\nvalue = [1, 2]"] ;
204 -> 205 ;
206 [label="gini = 0.0\nsamples = 1\nvalue = [0, 1]"] ;
204 -> 206 ;
207 [label="gini = 0.5\nsamples = 2\nvalue = [1, 1]"] ;
203 -> 207 ;
208 [label="age <= 44.0\ngini = 0.464\nsamples = 131\nvalue = [83.0, 48.0]"] ;
184 -> 208 ;
209 [label="age <= 38.5\ngini = 0.462\nsamples = 130\nvalue = [83, 47]"] ;
208 -> 209 ;
210 [label="age <= 32.5\ngini = 0.466\nsamples = 127\nvalue = [80, 47]"] ;
209 -> 210 ;
211 [label="age <= 29.0\ngini = 0.455\nsamples = 120\nvalue = [78, 42]"] ;
210 -> 211 ;
212 [label="gini = 0.0\nsamples = 2\nvalue = [2, 0]"] ;
211 -> 212 ;
213 [label="age <= 30.597\ngini = 0.458\nsamples = 118\nvalue = [76, 42]"] ;
211 -> 213 ;
214 [label="gini = 0.444\nsamples = 3\nvalue = [1, 2]"] ;
213 -> 214 ;
215 [label="age <= 31.597\ngini = 0.454\nsamples = 115\nvalue = [75, 40]"] ;
213 -> 215 ;
216 [label="gini = 0.456\nsamples = 114\nvalue = [74, 40]"] ;
215 -> 216 ;
217 [label="gini = 0.0\nsamples = 1\nvalue = [1, 0]"] ;
215 -> 217 ;
218 [label="age <= 36.5\ngini = 0.408\nsamples = 7\nvalue = [2, 5]"] ;
210 -> 218 ;
219 [label="gini = 0.0\nsamples = 4\nvalue = [0, 4]"] ;
218 -> 219 ;
220 [label="age <= 37.5\ngini = 0.444\nsamples = 3\nvalue = [2, 1]"] ;
218 -> 220 ;
221 [label="gini = 0.0\nsamples = 1\nvalue = [1, 0]"] ;
220 -> 221 ;
222 [label="gini = 0.5\nsamples = 2\nvalue = [1, 1]"] ;
220 -> 222 ;
223 [label="gini = 0.0\nsamples = 3\nvalue = [3, 0]"] ;
209 -> 223 ;
224 [label="gini = 0.0\nsamples = 1\nvalue = [0, 1]"] ;
208 -> 224 ;
}